{
    "admg": {
        "0": {
            "parents": [],
            "spouses": [
                3
            ]
        },
        "1": {
            "parents": [],
            "spouses": [
                3
            ]
        },
        "2": {
            "parents": [
                0
            ],
            "spouses": []
        },
        "3": {
            "parents": [],
            "spouses": [
                0,
                1
            ]
        }
    },
    "fc1_weight": [
        [
            -1.851840513595792e-05,
            -0.005512919067075789,
            -0.006142122120276056,
            0.0030554940220542275
        ],
        [
            3.9076788615248736e-05,
            -0.060630425617723645,
            -0.033613681204373996,
            0.04290282615654981
        ],
        [
            -4.608969406444023e-06,
            -0.03437031265485711,
            -0.010739455939881105,
            0.01607517839954105
        ],
        [
            5.804340304998023e-05,
            0.03166731102184146,
            0.012286238272166048,
            -0.019434683070197502
        ],
        [
            -2.5068537652691643e-05,
            -0.027605759528462302,
            -0.012452400833411491,
            0.01672211328720139
        ],
        [
            3.779838391574049e-05,
            -0.011489965588470132,
            -0.0004391415919863994,
            0.00403606439619714
        ],
        [
            -1.944227566225811e-06,
            -0.026497014947552477,
            -0.008262453723488843,
            0.011731584693311306
        ],
        [
            3.154454230498365e-05,
            -0.045785421509236646,
            -0.016837663909332137,
            0.02538626910283891
        ],
        [
            7.527992410998211e-05,
            0.016799038737104303,
            0.008770653354423723,
            -0.010813879192797133
        ],
        [
            8.721670043513908e-06,
            0.02553839665300551,
            -0.0011004538634886581,
            -0.019159918796995662
        ],
        [
            -1.323548517178839e-05,
            -5.913705767648412e-05,
            2.420118070065911e-05,
            -3.9655262882903724e-05
        ],
        [
            4.6570355405627105e-05,
            -9.177102541501874e-05,
            -0.00019906280094826332,
            -2.3477592889713684e-06
        ],
        [
            3.402473212910833e-05,
            -4.970456592496494e-05,
            -0.00016973968947289379,
            -1.6720252788922105e-05
        ],
        [
            3.07165619277504e-05,
            9.079770427173078e-06,
            0.00015189799260232129,
            5.072915733609282e-05
        ],
        [
            -0.0001748172996959657,
            -3.425419024205651e-05,
            0.0004541270370514698,
            6.779215827554395e-06
        ],
        [
            -9.889249403347339e-05,
            -3.905364833664564e-05,
            0.0003906607577340362,
            -1.1177752339866661e-05
        ],
        [
            0.0001555591228126973,
            -2.5794187593407406e-05,
            0.00037709876828252985,
            -0.0001819221279542044
        ],
        [
            -2.383610602589909e-05,
            -9.322968333644679e-05,
            0.000182159837390893,
            -2.3124627903107117e-05
        ],
        [
            -0.0001825352808831723,
            -3.450785276037035e-05,
            0.0004408532908575559,
            -1.598798145534711e-05
        ],
        [
            9.8199459549866e-05,
            -8.149877280596467e-05,
            -0.0004977392341911109,
            2.117182207333628e-05
        ],
        [
            1.0279632162624615,
            0.05047867573677784,
            -9.709035925714703e-05,
            0.008609229693869028
        ],
        [
            2.447790265988103,
            0.014782407196765598,
            3.73768045733604e-05,
            -0.022274780333338177
        ],
        [
            2.270471040264312,
            0.2736993834365198,
            2.7958798331846992e-05,
            -0.05203891673806254
        ],
        [
            0.30263355438012446,
            -0.32835422849399465,
            1.5718449143141302e-06,
            0.1747299346546018
        ],
        [
            1.0989860687816808,
            0.07221489688283968,
            -0.00017244484272479132,
            -0.018646169302104953
        ],
        [
            -1.2099163802948207,
            -0.10043218202828925,
            0.00016259588667302694,
            0.08585893323670056
        ],
        [
            1.1929396405620147,
            -0.21502388545502493,
            6.7227950477502405e-06,
            0.10700028224145111
        ],
        [
            -0.7684570324792169,
            0.128186572011455,
            0.000153419660515348,
            -0.01643848879758339
        ],
        [
            -0.5733804115419869,
            0.07320529223042331,
            0.00015100935406106437,
            -0.0884453584771095
        ],
        [
            -2.2208763285702924,
            -0.04820605668566531,
            6.567046955268748e-05,
            0.012352668050443664
        ],
        [
            -0.00011662856623383682,
            0.00010058763258075297,
            0.00045187511912222984,
            2.537116035228455e-05
        ],
        [
            -0.0003112270707509762,
            0.0004139854676261306,
            -0.0004172418177715657,
            6.600255439925747e-05
        ],
        [
            -2.070230829884734e-05,
            0.0002427296862841205,
            0.0004807830077250759,
            3.9438770198113485e-06
        ],
        [
            2.5143482170875946e-05,
            -7.204195500426055e-05,
            0.0005566708801124293,
            2.7500484797028444e-05
        ],
        [
            1.8586414924781604e-05,
            0.00016483046536130454,
            0.0011362614182981157,
            1.44208375733228e-06
        ],
        [
            -2.3844444201010475e-05,
            0.00020349899176034638,
            0.0010304297246588553,
            1.5620547470477382e-06
        ],
        [
            0.0005254773992261281,
            -0.0005796485648674361,
            -0.0005024914962932094,
            6.892296782608563e-05
        ],
        [
            -4.003819181970622e-05,
            0.00032412266832558274,
            0.0008721760181951993,
            1.1355328163610565e-06
        ],
        [
            -0.00013514238729214168,
            4.02493604504524e-05,
            0.0017131259913882285,
            1.8914054903564163e-05
        ],
        [
            -0.0002790516478201996,
            0.0003624861190174813,
            -0.00015458750723081876,
            3.3185788602736445e-05
        ]
    ],
    "fc1_bias": [
        0.010370405762835285,
        0.1535719428100077,
        0.004388753687550049,
        -0.06980232555544487,
        0.026293001953113158,
        -0.004940424960688463,
        0.001558540238633452,
        0.05103036171174679,
        -0.042528202958429184,
        -0.008287398263578386,
        0.45361026855189057,
        0.6560040632177382,
        0.3811219695340606,
        -0.12125759333450795,
        0.2351899229915946,
        0.27619018901640463,
        0.1732760176878609,
        0.619309238750699,
        0.23718993706144936,
        0.6331752233002303,
        -0.49885143313898184,
        0.39109421542976575,
        0.6666152372417744,
        0.09515879141378086,
        -0.905242085954342,
        1.125333122916485,
        0.3014478691913013,
        1.5222303821349725,
        0.502833774149819,
        1.009240292461019,
        0.11267947658523973,
        0.21123419830070844,
        0.01623128956204341,
        0.12447632550270611,
        0.00559418158397418,
        0.005986513252274467,
        0.3284998149405504,
        0.00460157533719562,
        0.07934792063906095,
        0.14250422943909652
    ],
    "fc2_weight": [
        [
            [
                -0.3827596906875823
            ],
            [
                0.9326556177281808
            ],
            [
                -0.09819190028667325
            ],
            [
                1.2425341103071028
            ],
            [
                -0.5318393583694367
            ],
            [
                0.7849023228210941
            ],
            [
                -0.04068417864888102
            ],
            [
                0.6896653847418649
            ],
            [
                1.576807789875686
            ],
            [
                0.18384080522716598
            ]
        ],
        [
            [
                -1.2111045612863194
            ],
            [
                -1.9868651401644244
            ],
            [
                -1.0060733870623566
            ],
            [
                0.17775457681595627
            ],
            [
                -0.6748260912036778
            ],
            [
                -0.776490253993233
            ],
            [
                -0.5085440026230139
            ],
            [
                -1.9959159401272242
            ],
            [
                -0.6800262238127501
            ],
            [
                -1.755745873259121
            ]
        ],
        [
            [
                -2.1344663349489696
            ],
            [
                2.5583868940958228
            ],
            [
                0.9925400739551193
            ],
            [
                0.21205542625200427
            ],
            [
                -3.61589482475524
            ],
            [
                3.6201900383571592
            ],
            [
                1.0831735730947243
            ],
            [
                3.1813644134214565
            ],
            [
                3.674526036009889
            ],
            [
                2.394925555886744
            ]
        ],
        [
            [
                0.5207574501582488
            ],
            [
                1.3601682727219482
            ],
            [
                0.08093387362044499
            ],
            [
                0.5633008982330667
            ],
            [
                0.02938666048950183
            ],
            [
                0.03180820841479858
            ],
            [
                1.4456425723342683
            ],
            [
                0.02320814698901277
            ],
            [
                0.38569254911225614
            ],
            [
                0.6776190643995293
            ]
        ]
    ],
    "fc2_bias": [
        [
            -0.6318746689768998
        ],
        [
            -0.8380536578405055
        ],
        [
            -2.583004139247058
        ],
        [
            0.6549719191806173
        ]
    ],
    "M": [
        [
            0.002455121038280265,
            0.0,
            0.0,
            0.0
        ],
        [
            -0.04783254906044255,
            0.02174005814377288,
            0.0,
            0.0
        ],
        [
            -4.331916244311262e-06,
            -0.020511426973509633,
            0.005655943810379548,
            0.0
        ],
        [
            -0.6890154763654017,
            -0.4336790478726341,
            -0.01809908231261846,
            -0.5869723774028051
        ]
    ],
    "True_Sigma": [
        [
            1.0,
            0.0,
            0.0,
            -0.7027176503375038
        ],
        [
            0.0,
            1.0,
            0.0,
            -0.44048544364477316
        ],
        [
            0.0,
            0.0,
            1.0,
            0.0
        ],
        [
            -0.7027176503375038,
            -0.44048544364477316,
            0.0,
            1.0
        ]
    ],
    "h_val": 1.953326602619237e-06,
    "mle_loss": 2.887668812377043,
    "W_est_dce_no_thresh": [
        [
            7.334527146494189e-11,
            6.733824191994372e-06,
            2.9711454410195315,
            7.696433923885146e-06
        ],
        [
            0.00043436767733939216,
            1.674208682073704e-10,
            0.0399989261840192,
            1.3017416428635472e-05
        ],
        [
            0.00035748783403197687,
            2.6168230450941937e-05,
            5.06188644089816e-10,
            1.0187570198640092e-05
        ],
        [
            0.00030387554836748586,
            4.747171414500202e-05,
            0.029711926721973994,
            6.111582349599858e-11
        ]
    ],
    "Sigma_est": [
        [
            1.004922317070811,
            -0.04795012803420138,
            -4.342564689280642e-06,
            -0.6907091710190699
        ],
        [
            -0.04795012803420138,
            1.0467271795259177,
            -0.020962021858691494,
            -0.4102531206343481
        ],
        [
            -4.342564689280642e-06,
            -0.020962021858691494,
            1.011796827603157,
            -0.009303378866149223
        ],
        [
            -0.6907091710190699,
            -0.4102531206343481,
            -0.009303378866149223,
            0.9722924514496001
        ]
    ],
    "X_true": [
        [
            2.0890843198176205,
            -6.940758252008686,
            1.1800605789390854,
            2.5212457643860198
        ],
        [
            1.8793008485858294,
            -5.230759795031616,
            0.6266543105965254,
            3.0527493221702726
        ],
        [
            0.003451043580382507,
            -8.54255280619231,
            6.529636871504246,
            5.7068811940125475
        ],
        [
            1.1028089795196325,
            -6.182153958105421,
            3.0257620657667132,
            2.4076178454459676
        ],
        [
            2.5392682924278747,
            -6.699721180331787,
            -0.0271318555426526,
            2.046404272116784
        ],
        [
            3.0063970001467784,
            -7.8991928406623115,
            0.10873231297483343,
            2.4106155335709567
        ],
        [
            0.1693554563131774,
            -6.593899570671656,
            5.815457178829803,
            4.576231146950301
        ],
        [
            3.9055462202060873,
            -8.876199770220245,
            -2.966927261743639,
            2.624218456504707
        ],
        [
            1.5482432951544265,
            -7.021664186169059,
            1.3016916580155855,
            1.9863219509734025
        ],
        [
            1.6570255276163406,
            -7.5431590142972365,
            2.3222114899104644,
            3.30084518837404
        ],
        [
            0.8291947008439382,
            -7.364841521008177,
            5.429480716223637,
            4.283116206692968
        ],
        [
            1.9692213618969916,
            -7.546310587727174,
            3.7568945889737995,
            3.7657606182358774
        ],
        [
            0.9744861487577741,
            -7.986751353297316,
            6.061726315046707,
            4.4791236015853535
        ],
        [
            0.6463336146739725,
            -8.92765559634992,
            6.056526875451571,
            5.263695543938226
        ],
        [
            1.2438174973300136,
            -8.669916735073242,
            7.185456628393855,
            3.5669869440129385
        ],
        [
            2.261492127647391,
            -6.345752715931288,
            1.2303798255777036,
            2.4489275381022413
        ],
        [
            2.244964341079503,
            -6.461671448714239,
            0.17066538532288328,
            3.216989873822053
        ],
        [
            2.457488544578601,
            -6.755961358394731,
            -0.7783066042265546,
            1.9639797650203608
        ],
        [
            0.7681354518016694,
            -7.602923760519097,
            6.288009012322728,
            4.120138995727347
        ],
        [
            0.9008321974660228,
            -6.060095629616365,
            6.361167477749559,
            2.9982217962222126
        ],
        [
            2.084917037635872,
            -6.3055301500964225,
            0.8933770797031484,
            4.096239641032363
        ],
        [
            3.2362848437236984,
            -5.296323207209587,
            -0.9533696326844744,
            2.1923993319316146
        ],
        [
            2.205948327344007,
            -9.471129893206536,
            2.3554501072283918,
            4.148161007605872
        ],
        [
            1.673407679749773,
            -7.111353796127644,
            2.5946617838962034,
            3.3405748684527468
        ],
        [
            2.0833709481828095,
            -8.419964868032304,
            3.2269564879522696,
            3.625157055064163
        ],
        [
            2.448822959810104,
            -6.99236609576506,
            -0.7564137028942003,
            2.3096426599916295
        ],
        [
            0.06195923833665007,
            -8.314935444538307,
            6.48648092489291,
            5.572598212786177
        ],
        [
            2.8138692885925387,
            -6.688908311871283,
            -0.31639055915155867,
            1.6926535717152644
        ],
        [
            2.0320714344981217,
            -7.832437206773006,
            0.17310761135833763,
            3.602508227931718
        ],
        [
            -0.6059816402379341,
            -7.5450243851476895,
            8.092825294716631,
            4.937329626554116
        ],
        [
            0.38799476667787447,
            -7.152124537465611,
            6.242827438397145,
            4.646636557217882
        ],
        [
            2.959864842796735,
            -5.034443974626935,
            -2.562518740152115,
            0.3994572848614202
        ],
        [
            1.1591330973342162,
            -7.614117824058455,
            4.73411522275552,
            3.3612265928378076
        ],
        [
            1.247213552634344,
            -7.0153537171531495,
            4.275901562078499,
            3.947376149426762
        ],
        [
            0.03882811988745827,
            -7.651652153206122,
            8.163886106205824,
            4.3272892759245405
        ],
        [
            0.20473499379486237,
            -6.132154562451081,
            6.933854457079043,
            3.3931508478827093
        ],
        [
            0.9299522198132377,
            -6.176387573066109,
            6.560721870910937,
            5.098984867219321
        ],
        [
            2.295413709281032,
            -6.498086635943807,
            0.5348957663283974,
            2.4268783444304662
        ],
        [
            0.8508608430347153,
            -8.394629710873815,
            5.837770792935502,
            3.2459701380770896
        ],
        [
            1.5378478867385605,
            -7.649839329767898,
            2.4723230244051737,
            3.057244222246207
        ],
        [
            1.4674667925442506,
            -5.150743041806696,
            1.8209662583978634,
            3.9907163314707015
        ],
        [
            1.2271212565027105,
            -6.988514657744528,
            2.771861231363124,
            2.3593420488475156
        ],
        [
            -0.5931744949990123,
            -5.831110299337644,
            8.894269360894578,
            4.642784303076054
        ],
        [
            1.1839755402527268,
            -7.619334179544362,
            3.841861583872677,
            3.9016158658124085
        ],
        [
            0.45387311132425356,
            -8.009547129490208,
            6.038588177996387,
            4.795802862382939
        ],
        [
            1.5998495051516524,
            -7.005547842032695,
            1.7982208347895172,
            3.2324955259678645
        ],
        [
            1.22575302987248,
            -6.78709945409045,
            3.4995219352826066,
            3.5018583937604273
        ],
        [
            2.1066715508255003,
            -7.630947602774075,
            0.2740599783332738,
            3.5977239264259313
        ],
        [
            1.7069378132973139,
            -8.090474308348371,
            4.30779680865649,
            3.8027354108588276
        ],
        [
            1.2618638421740402,
            -7.2690647086650095,
            5.360157552588905,
            3.0496982371289567
        ],
        [
            0.4164491402688433,
            -6.298559939961774,
            5.386969963529031,
            4.9012082711279845
        ],
        [
            0.8138065308317963,
            -5.376929408310952,
            7.026620653111539,
            2.835676760176134
        ],
        [
            -0.2985537229112041,
            -6.12339323056656,
            9.058173784081323,
            4.749804439859428
        ],
        [
            1.1437739869678847,
            -8.712990520810207,
            5.497227660490761,
            3.856900238291641
        ],
        [
            0.952838540527818,
            -8.981790621328663,
            4.9999553929331455,
            4.341207199965273
        ],
        [
            0.624975484016872,
            -6.3043929359509185,
            5.008451256448716,
            3.1512327160895213
        ],
        [
            2.356954187899788,
            -6.879869330349189,
            0.7964160728576362,
            2.3714829145730025
        ],
        [
            1.6073539121607006,
            -6.824361605285735,
            1.3436999842515431,
            3.857859363491327
        ],
        [
            1.691955679973213,
            -6.86717129056236,
            1.7811048710416482,
            2.773383077806948
        ],
        [
            1.0616076143461446,
            -6.5362729201097265,
            5.610349151875892,
            3.514386686695856
        ],
        [
            2.389979350298911,
            -5.398345837085422,
            0.990471299995624,
            1.933398417466741
        ],
        [
            2.615230406497274,
            -8.33585261512578,
            -0.18175427668814514,
            3.6855184899778113
        ],
        [
            0.9593896348752431,
            -7.60204365468989,
            3.3932461075129927,
            4.735195327684001
        ],
        [
            2.422887521427641,
            -6.967165482351971,
            0.28690886267313553,
            2.8502138138542685
        ],
        [
            2.277706885856341,
            -7.915763043219153,
            -0.4521169557853679,
            3.4213489804828052
        ],
        [
            2.3098647436959983,
            -7.168918867514023,
            0.4760783993019294,
            2.9732470001641293
        ],
        [
            2.470451379253797,
            -6.020708289595538,
            0.477255847800527,
            2.7802766508030468
        ],
        [
            1.6291476292962062,
            -6.5880925638871295,
            1.535915841439659,
            3.026950729685825
        ],
        [
            1.005126898303362,
            -8.412421192720085,
            5.5665429709396665,
            4.184847751853192
        ],
        [
            1.6173193639164862,
            -8.843829178037367,
            1.7320827310590383,
            3.4372065587285956
        ],
        [
            2.2302874860119353,
            -7.198166950899957,
            0.6989129060032933,
            3.1095658736296534
        ],
        [
            2.4878749880891946,
            -8.109373405865622,
            -0.608296130535199,
            2.033840184231805
        ],
        [
            2.3738177887887275,
            -7.333036430964596,
            -2.0882627800845066,
            4.0953601419667125
        ],
        [
            1.9399910868511165,
            -7.273488234979867,
            1.386720836959972,
            2.502456955324461
        ],
        [
            2.954503304554013,
            -7.597966906587387,
            -0.5109137236053874,
            3.460850083879877
        ],
        [
            1.6033644959224562,
            -6.524624369921377,
            3.6494757142729712,
            2.8805112951043537
        ],
        [
            3.221678861331079,
            -5.405885527783388,
            -3.898295879791946,
            0.4423144508275825
        ],
        [
            1.7459528494063912,
            -5.5927632378907,
            0.029996638278956933,
            3.39698099613847
        ],
        [
            0.9123254435517191,
            -6.820064991188545,
            5.913799504358412,
            2.4955619449685855
        ],
        [
            0.8032924194914799,
            -7.188338607241161,
            6.105476772801866,
            4.510275578384899
        ],
        [
            1.7846483645991387,
            -6.967361813642156,
            0.3392718507349781,
            3.1662497483974117
        ],
        [
            -1.1366135653506269,
            -7.130476495393469,
            8.667640534684198,
            5.639069137999943
        ],
        [
            2.4437466797281098,
            -7.8520955449179555,
            -0.9926876659719455,
            3.8328478002597914
        ],
        [
            1.6857821696038926,
            -8.16331390043646,
            3.056042912102186,
            3.317598331325854
        ],
        [
            0.48056535159527014,
            -6.715681744967379,
            6.726615258196151,
            4.257272410249949
        ],
        [
            2.3489278211144495,
            -6.844179662780382,
            1.6428087676807686,
            3.0431664453425764
        ],
        [
            3.5445662586532025,
            -8.433031281220723,
            -1.401575898268105,
            2.6989707655361763
        ],
        [
            0.33598577498101023,
            -4.975687677798744,
            7.099518379849064,
            3.3913703777200954
        ],
        [
            1.8933567227593158,
            -8.705895028866683,
            3.861199733055452,
            3.4473378316383823
        ],
        [
            0.9261133570133384,
            -8.181611240973513,
            4.913578398008761,
            3.9282136752038306
        ],
        [
            -0.7276869526949059,
            -7.9299137199963905,
            8.068358412821983,
            5.494866552859341
        ],
        [
            1.8581710223129324,
            -5.595730536576256,
            1.3430606248552257,
            1.4955914607036123
        ],
        [
            1.400391155364552,
            -5.246898650898732,
            3.445877618912318,
            2.8285805879387933
        ],
        [
            2.1013106163381794,
            -7.9460692484921225,
            1.2295578057773509,
            3.116413098934631
        ],
        [
            3.0057169858249733,
            -7.66812121758048,
            -1.5877352848087474,
            3.1334859112767464
        ],
        [
            0.2859231655506782,
            -5.482180396424269,
            5.542113503370661,
            3.013122862669959
        ],
        [
            0.8616322859907529,
            -6.673406990787804,
            5.664490773314413,
            3.6369233934867022
        ],
        [
            2.2075751346643524,
            -6.775136716041782,
            1.5794286714403187,
            2.349691750750921
        ],
        [
            1.1284509325413745,
            -8.204910721312213,
            5.880791344823576,
            5.14014954180167
        ],
        [
            2.142533461229913,
            -7.305623887246258,
            0.22286083587464078,
            4.163091131541308
        ],
        [
            0.4817994756189121,
            -6.896932132908244,
            4.910418548860381,
            4.184068532016989
        ],
        [
            1.4150616487013017,
            -6.963171332582859,
            3.6901188986056357,
            3.0727187628813657
        ],
        [
            1.9520555799453199,
            -6.536236259855843,
            1.2788697546102723,
            3.2746331138468374
        ],
        [
            2.315891255892387,
            -6.153512092736649,
            1.005804906319113,
            2.481328132287484
        ],
        [
            0.8027576410004297,
            -7.929202044007189,
            4.694241301847443,
            4.825241442929197
        ],
        [
            1.063325333593907,
            -6.757385706025188,
            3.368637635556618,
            3.5050732521049244
        ],
        [
            0.8225801814783442,
            -6.932658145793626,
            6.66338237338652,
            4.656217464941152
        ],
        [
            1.0270827569191603,
            -7.674103775010362,
            4.680335035712371,
            3.326716840492614
        ],
        [
            0.30873034955782375,
            -7.617465483931427,
            7.388116086815297,
            3.629338346903009
        ],
        [
            2.2518514508183127,
            -6.734634696966544,
            1.2093484842914128,
            3.3216973043937394
        ],
        [
            2.5363650716427903,
            -8.66154018002117,
            -1.5864652182454217,
            3.6352114968029126
        ],
        [
            0.016049653136630093,
            -8.05274894133599,
            5.40126178650206,
            4.944290745553115
        ],
        [
            2.728946310509822,
            -7.860506714132655,
            -0.43433704485022084,
            2.3133389820770134
        ],
        [
            0.6493236014123899,
            -5.787281128772571,
            6.875077954893117,
            2.5345408990889755
        ],
        [
            1.650378204838814,
            -8.750069092034765,
            2.0114880425896566,
            4.368851264389988
        ],
        [
            2.4544853062462266,
            -6.257370170505646,
            -1.2696450759918383,
            2.330727282056649
        ],
        [
            1.65135789078063,
            -7.441240414766233,
            2.3106517853045587,
            3.7110233182422343
        ],
        [
            2.1172519045145877,
            -6.7739511080956305,
            2.471672581181141,
            2.7501687416841953
        ],
        [
            3.5408111236539908,
            -5.727760067382067,
            -2.1567252156059533,
            1.0026648727178893
        ],
        [
            1.4254981009070165,
            -7.686322615434479,
            2.3555305225913097,
            3.9617718662839945
        ],
        [
            1.2813523299479592,
            -7.099255079642505,
            3.574066607620953,
            3.113662704185831
        ],
        [
            0.5369846358419725,
            -7.165303979850196,
            6.4652229246524655,
            3.5202937961748018
        ],
        [
            1.2575108214635335,
            -8.307148840201927,
            2.438907850639125,
            5.347154270102221
        ],
        [
            1.9522675186258227,
            -7.514817066220098,
            1.6116696488703226,
            2.8657495768254395
        ],
        [
            1.1214177023930394,
            -8.441845035867951,
            3.4292362409501984,
            4.36729859795349
        ],
        [
            0.0365284110566495,
            -8.319236105647965,
            6.4538818975643455,
            4.647179273706703
        ],
        [
            0.5869683632909621,
            -8.906309824225941,
            6.6772831849986725,
            4.828247144067485
        ],
        [
            0.9692575894591765,
            -7.02864563072232,
            5.470302215245167,
            4.008477957868606
        ],
        [
            3.6782658650798643,
            -6.302510048659705,
            -0.835265127900152,
            1.5341729960566615
        ],
        [
            1.716782116460187,
            -8.305526313455063,
            2.466692032031832,
            3.8433957357221966
        ],
        [
            -0.09026713233010497,
            -9.218280772303382,
            9.081609319080162,
            4.958335398500248
        ],
        [
            1.8335741648027326,
            -7.095278186880915,
            1.8477161804100943,
            2.6159301925930794
        ],
        [
            2.1710063967386146,
            -6.542551166371524,
            0.37620777529365884,
            2.1539724333464134
        ],
        [
            2.435649376737434,
            -8.063431814194987,
            0.3799284170502248,
            3.433446648275732
        ],
        [
            0.7196319885535876,
            -4.77748903249433,
            5.019866215219862,
            3.387383129228539
        ],
        [
            -0.05249534674359535,
            -7.322660313168452,
            8.189943541580403,
            4.775361010569453
        ],
        [
            3.018101481962062,
            -7.67112613958188,
            -2.276949190758848,
            1.8130132388105844
        ],
        [
            1.4032098437556042,
            -6.121029727022899,
            4.9736745288135795,
            2.528484241862361
        ],
        [
            1.667647261446733,
            -6.737111988545009,
            3.7637028410493323,
            2.0060044870714977
        ],
        [
            2.0045133498333687,
            -7.160454157451171,
            1.432114722715975,
            2.7905096459497356
        ],
        [
            2.1151115616702914,
            -4.79746937409311,
            0.1971525228985096,
            1.8812607853254513
        ],
        [
            0.2588287521166759,
            -8.404502679597266,
            7.071147346473254,
            4.404388551557436
        ],
        [
            2.175153222869242,
            -5.59744185626908,
            0.42547237580926606,
            2.561211934397318
        ],
        [
            2.8053846933979676,
            -6.8699608636459155,
            -0.9131678789580571,
            2.4736490916067932
        ],
        [
            0.7652242426065357,
            -8.40531216211648,
            5.482075352968758,
            4.659297244361806
        ],
        [
            1.9859402212663306,
            -4.938601898028502,
            1.5412630391057416,
            1.977098422258949
        ],
        [
            1.3365368321747253,
            -5.807414444249039,
            1.8375452127876493,
            2.805332356946687
        ],
        [
            0.041626440556986166,
            -8.304708775857032,
            7.729593519052657,
            5.384634369850687
        ],
        [
            1.5954773726924216,
            -5.813405591035533,
            1.149871473648908,
            3.062363517483613
        ],
        [
            -0.1759791098061816,
            -7.209570191030016,
            6.718760576824447,
            4.769899787683581
        ],
        [
            1.0464731761947106,
            -7.012733653258121,
            4.826265293207852,
            3.7365681851270938
        ],
        [
            1.2053906094152338,
            -7.8805768359779655,
            3.5241631795854045,
            3.714246331987855
        ],
        [
            1.0683341841774467,
            -6.321556630978095,
            5.108655135411885,
            3.1519326234561054
        ],
        [
            1.7469200412704302,
            -7.398772136612468,
            3.1699343507639943,
            4.248211764853691
        ],
        [
            0.27415842676723456,
            -7.206113284191918,
            5.9433635382743715,
            3.6832568293169996
        ],
        [
            1.8509347990920062,
            -5.84761292589161,
            0.8595830444442725,
            2.668581841843274
        ],
        [
            1.8669780898591342,
            -8.349039231765987,
            0.7261703644597006,
            2.9768998699065037
        ],
        [
            1.8139830366763272,
            -6.988361638616276,
            0.9356788561984075,
            2.7991768088344378
        ],
        [
            1.9176631583897092,
            -8.414078247324927,
            0.7854023949428556,
            3.972844268521041
        ],
        [
            1.8247071435861906,
            -7.212908434955566,
            0.9061227113531697,
            2.7629990987882334
        ],
        [
            1.001759558621485,
            -7.644022399501547,
            3.8647631455362,
            3.949206184034864
        ],
        [
            2.4855125639297504,
            -5.464384085378551,
            -0.9720670081935324,
            2.563315889453273
        ],
        [
            1.77369768074379,
            -7.757843752361283,
            2.995658987730528,
            2.948429975839308
        ],
        [
            0.07207127117796275,
            -8.63913580820233,
            7.229685413022038,
            5.655220921284268
        ],
        [
            0.6753561966308629,
            -7.440519234065683,
            5.58837536794507,
            4.639629724990014
        ],
        [
            2.429928569154298,
            -6.435367017573576,
            -1.8387121849486538,
            1.718984744691533
        ],
        [
            2.4347188200094587,
            -8.051682966592628,
            1.7925558882998247,
            2.8950596577966166
        ],
        [
            1.0276783676744619,
            -6.727937870333344,
            3.8514930303905164,
            3.8396990594976077
        ],
        [
            2.4060776398079176,
            -6.5677920454921965,
            0.7533749484872182,
            2.9809224694224143
        ],
        [
            2.10920824425096,
            -8.923587573874904,
            0.6267529218044785,
            4.21180066001249
        ],
        [
            2.0227572420553956,
            -8.995088833633188,
            1.7311885226204113,
            2.9383093453209432
        ],
        [
            -0.5960425668701124,
            -6.689528279247986,
            7.466872826574539,
            5.619442558558555
        ],
        [
            0.19030449040411201,
            -8.797110846550678,
            9.102270797942829,
            4.979070110191991
        ],
        [
            0.9249437546409767,
            -8.489195672459026,
            4.26823091312177,
            4.301132462138783
        ],
        [
            2.1379028844567616,
            -7.675480353330192,
            1.9582075591786727,
            3.8837107437980225
        ],
        [
            3.0088282142792826,
            -9.103812944765606,
            0.6456644082202643,
            3.1705260450196606
        ],
        [
            2.0432016264832096,
            -8.658318839621478,
            2.509831547133349,
            3.0726134753642658
        ],
        [
            3.459464700443917,
            -8.966372433117394,
            -0.26623527854698503,
            2.4714597548836235
        ],
        [
            1.4059342701838295,
            -8.223462844986525,
            5.7254258697121765,
            3.7255023946004253
        ],
        [
            1.1008387327753382,
            -7.19050334843447,
            5.224725990922489,
            2.7487559030909745
        ],
        [
            2.852425678650892,
            -8.232387139845038,
            -1.8176472877333425,
            3.9810353917547014
        ],
        [
            2.894032810802363,
            -6.6656431067175195,
            -1.4744125712602407,
            2.1981523807777292
        ],
        [
            1.3086784820386514,
            -6.680055388978972,
            3.663918685277943,
            3.3218189378810776
        ],
        [
            1.1406537592017938,
            -6.313398785410494,
            5.565243397291865,
            3.290748379127478
        ],
        [
            1.8311440072805172,
            -6.279383156148714,
            2.9773951344935794,
            1.8873296089665241
        ],
        [
            2.2872429932761267,
            -6.513613455312526,
            2.355230805435996,
            3.81697218393936
        ],
        [
            -0.5419615689712205,
            -7.53986846779514,
            7.387531748585975,
            4.594929732171038
        ],
        [
            1.5920760009941937,
            -8.3182410083982,
            2.091254379368074,
            3.8906735252854197
        ],
        [
            1.714325595253742,
            -8.375817455063398,
            0.0757365444948177,
            2.8798287538607616
        ],
        [
            1.3508751383404878,
            -7.783512276448418,
            3.6313837328662544,
            3.3403411297137597
        ],
        [
            0.9380610620145696,
            -6.767754282588014,
            5.683795088642232,
            4.078217267576041
        ],
        [
            -0.6260882202640881,
            -4.796040696257872,
            7.784483679941322,
            3.737540874018383
        ],
        [
            1.711309746857919,
            -8.05431810145715,
            3.011505922081406,
            3.563268300342452
        ],
        [
            1.4986184205284154,
            -7.846482274638744,
            3.8041842337663967,
            4.055690161911774
        ],
        [
            1.4738542136923916,
            -8.09098401593922,
            2.9162606600398586,
            4.228137569073012
        ],
        [
            1.2915335704081303,
            -7.029339707170736,
            3.868529769561162,
            3.57794155529843
        ],
        [
            3.060891745825475,
            -9.16394643611715,
            -0.7134518025526514,
            3.2901374132135173
        ],
        [
            2.1317518547267444,
            -6.899235780888798,
            0.5014254225950328,
            3.630153960892386
        ],
        [
            1.4913982902301037,
            -6.723836790839491,
            2.4061918131491566,
            2.9209357025124136
        ],
        [
            1.9882812200332567,
            -7.326071282797145,
            1.9620443442580542,
            3.3938680423757566
        ],
        [
            1.0810096901266086,
            -5.69085968904372,
            6.1775426541929725,
            3.298964703017364
        ],
        [
            2.436311456198284,
            -6.835359499699644,
            -2.2361146598269674,
            2.2941398926042273
        ],
        [
            1.4385276662308535,
            -7.217926996782677,
            2.639996238295624,
            3.587262686699357
        ],
        [
            1.1194645154700738,
            -6.427788988864371,
            4.851156263655334,
            3.8186093475234797
        ],
        [
            3.538891463306254,
            -8.214115534056496,
            -2.693945121159353,
            2.0392885152267293
        ],
        [
            1.388115690195499,
            -6.522836391653811,
            2.503694261868418,
            3.3419059778382127
        ],
        [
            0.5966144122444834,
            -9.300951597448039,
            5.628451224128132,
            4.358731025687448
        ],
        [
            2.3936277130597374,
            -7.233195811313847,
            1.7079267586884583,
            4.7895356700068366
        ],
        [
            0.5427724002918282,
            -8.16367168651144,
            5.318292415014035,
            5.079881124944114
        ],
        [
            0.2831639928301437,
            -4.9407666655282165,
            9.3606724026791,
            3.7135991420170478
        ],
        [
            4.428697790225877,
            -7.71951652287249,
            -4.35114637458625,
            0.6527770637476036
        ],
        [
            1.952735930205063,
            -8.249221441540612,
            2.170269421749677,
            4.176744943605241
        ],
        [
            0.5059021867510771,
            -7.294012262426185,
            4.815326954799337,
            4.522019109609057
        ],
        [
            2.387861601843982,
            -7.713333988850118,
            0.7688746943731496,
            1.492244610682209
        ],
        [
            1.1121548557831638,
            -6.499255747891233,
            2.963380190023199,
            3.5290613561099478
        ],
        [
            0.2617384053910501,
            -8.080638058069514,
            6.976027897817469,
            4.886638459170144
        ],
        [
            2.660595913863007,
            -8.935188684187235,
            -1.9977953634933585,
            2.7339212910428237
        ],
        [
            1.538686752763844,
            -6.314941666722467,
            2.4546427512086963,
            3.765525665180135
        ],
        [
            2.0636557159606426,
            -6.783082255950665,
            0.7511230116766893,
            2.9632312669340983
        ],
        [
            2.4699780468211032,
            -7.419766431560594,
            0.6214880373862122,
            3.5080256068122
        ],
        [
            0.25884020504146976,
            -5.811598947097048,
            6.682093052577435,
            2.9523108404498504
        ],
        [
            0.6616494825636136,
            -5.81129998816584,
            5.29126141782476,
            3.380846615970529
        ],
        [
            2.22108099522692,
            -7.456971525957344,
            -1.4535987663055945,
            3.186861746136923
        ],
        [
            2.944003776594026,
            -8.42848146850525,
            -1.7075652865184163,
            3.0655603818297146
        ],
        [
            1.0320255876538091,
            -7.31624652845377,
            6.353798100764225,
            4.594439624481161
        ],
        [
            1.8561945926802297,
            -5.751049393672003,
            1.8175902208782202,
            2.750567605590504
        ],
        [
            1.7382541975682568,
            -7.336987534473526,
            2.690608682741379,
            3.0162277978981114
        ],
        [
            2.3697687402201844,
            -7.8682148654510256,
            -0.03956181491354141,
            1.9418970740484323
        ],
        [
            0.8272388635512291,
            -6.922857514534191,
            4.912128493698404,
            3.495683240488451
        ],
        [
            0.4501693925065344,
            -9.177034811843749,
            6.220984662131914,
            5.13085746622903
        ],
        [
            1.4305967741031016,
            -6.865541121793175,
            3.178789202351397,
            3.9554428519798326
        ],
        [
            1.0244057483477824,
            -8.55691728563199,
            5.726796106168348,
            5.008230666816845
        ],
        [
            1.347333954193605,
            -9.058954230337264,
            3.517231974904889,
            4.109460630951983
        ],
        [
            1.506134432250056,
            -7.485375671789746,
            4.815618852355644,
            2.3029540343100225
        ],
        [
            1.963851721484576,
            -7.41425652574867,
            1.704016479906724,
            1.982638613887222
        ],
        [
            1.603946870197415,
            -8.251975006322894,
            3.9838518480187575,
            3.3651634924131373
        ],
        [
            1.2655786745367668,
            -8.21302064970141,
            6.021729310068714,
            4.193034402692255
        ],
        [
            0.5291465511359086,
            -6.264459691377638,
            7.246226471448984,
            2.5464339737786292
        ],
        [
            2.7253981120928437,
            -7.241269306377495,
            -2.2742770439692057,
            2.5437449617642014
        ],
        [
            2.5084917443384054,
            -7.514714705840173,
            2.0190578592832225,
            2.1473097812907933
        ],
        [
            1.4056043103940312,
            -7.144918240930633,
            2.7533124866434884,
            4.0152728954996695
        ],
        [
            1.6719940957958868,
            -6.272546471652674,
            1.4751554684751487,
            3.1348728209012307
        ],
        [
            1.6300970108599628,
            -6.579113566208575,
            4.756450561316494,
            2.4710545860208457
        ],
        [
            1.5677151413663082,
            -5.685660313560469,
            0.6593689515543097,
            3.2511928946361066
        ],
        [
            -0.08306556854596248,
            -7.390264016427794,
            5.633202711184246,
            4.794512988027905
        ],
        [
            0.5923895648793538,
            -8.414915602926126,
            6.280173868315025,
            4.3616580995891
        ],
        [
            1.0802978832949506,
            -9.492765707019547,
            5.863186944393606,
            4.963477980261787
        ],
        [
            2.81466988431915,
            -7.355241881614976,
            -1.614985247930854,
            2.699673369797527
        ],
        [
            1.496599285585811,
            -7.023621728707054,
            3.3508823490715676,
            3.2841532695063864
        ],
        [
            1.7518104815883828,
            -7.112069560515226,
            2.0045963995216733,
            3.5095980455784743
        ],
        [
            1.0746821686918553,
            -6.861047637047031,
            4.004733159613429,
            4.280885756393013
        ],
        [
            2.2473017214769677,
            -8.740208555354947,
            1.1891085344760812,
            2.8817397073067728
        ],
        [
            2.050374275089936,
            -6.871505558333221,
            2.753539590100993,
            3.413974168303277
        ],
        [
            1.1677162628909528,
            -7.439017601835272,
            4.060125726697366,
            3.52639652982335
        ],
        [
            3.4098208218160604,
            -9.323207219562796,
            -1.8287394701251443,
            3.393525643517696
        ],
        [
            -0.7122607734265181,
            -7.193696791256807,
            7.939300702552979,
            4.981183411389011
        ],
        [
            2.5578217241248686,
            -7.833422648433236,
            0.9369143948654639,
            3.7851226924711217
        ],
        [
            1.7003220888838253,
            -6.201595780922645,
            2.4979104305621282,
            2.9839808276219886
        ],
        [
            1.3432906229886745,
            -6.021770187957326,
            3.1436023060509797,
            2.771783145030204
        ],
        [
            1.6048201790395382,
            -6.8117900082309095,
            4.499798778813183,
            3.5849675381882746
        ],
        [
            2.0004827899860587,
            -7.426185528783179,
            0.5015695274397697,
            3.6575946942319915
        ],
        [
            1.4142697183075057,
            -6.34201617499204,
            3.424650646460898,
            2.473483954084209
        ],
        [
            2.146267472400876,
            -6.723161087635651,
            1.391090937937867,
            2.9572701764786564
        ],
        [
            1.2349343239634112,
            -7.836451596744187,
            3.1177967509735662,
            4.257809412655338
        ],
        [
            2.118897869771059,
            -7.250554006547653,
            1.2428173798901838,
            2.663348785307641
        ],
        [
            0.011482690411651841,
            -5.56207673936961,
            7.735601067764449,
            4.09799571786653
        ],
        [
            0.5840448369143043,
            -7.267706508263499,
            7.754667358467814,
            3.8214543340951095
        ],
        [
            0.6504449575515842,
            -7.272003344177717,
            5.979484173939746,
            3.811320698076994
        ],
        [
            2.1064374652585833,
            -7.06878791859575,
            -0.09791696576851616,
            2.9322591983241306
        ],
        [
            1.2741397729171973,
            -7.0616371203899,
            4.895826167335266,
            3.2961198239824747
        ],
        [
            1.1994098114079028,
            -7.492446987220347,
            3.929837753539009,
            4.0250160853947365
        ],
        [
            1.002671024187726,
            -6.363213909859777,
            5.121577123359486,
            3.4938329301878657
        ],
        [
            2.26009678175811,
            -7.259321254719213,
            0.5939866900581621,
            2.848907510483471
        ],
        [
            0.572251356448175,
            -6.086580042452739,
            7.005710221450631,
            2.646598691897465
        ],
        [
            1.5914254950470306,
            -5.945533268863089,
            2.0460396739675133,
            3.857581106698359
        ],
        [
            -0.5755855746579992,
            -8.359784981138477,
            8.216861475856962,
            4.848874598760769
        ],
        [
            0.43194195951688985,
            -6.014709017355338,
            6.491312256502149,
            3.998812726819429
        ],
        [
            3.7423805336056355,
            -6.900657682067991,
            -2.5237029643483075,
            2.788073600051369
        ],
        [
            1.2528321873191968,
            -7.515190009337172,
            3.7002138376686653,
            4.16980960816771
        ],
        [
            1.5142725702837738,
            -8.026663568714445,
            2.731539059285036,
            3.3961730685257745
        ],
        [
            0.0786072944385594,
            -8.20445943767518,
            7.426753906271614,
            5.022600951025423
        ],
        [
            4.096160124286643,
            -7.761857928238046,
            -3.0054490121112942,
            0.9252163553482271
        ],
        [
            1.9716094973531104,
            -7.88551371982972,
            1.0848343037622576,
            2.8679323752538077
        ],
        [
            1.9890589525947548,
            -8.266345172521048,
            1.1798338825521446,
            4.0993874171753175
        ],
        [
            0.6622242803239852,
            -6.489183790467898,
            7.387459853899701,
            3.3833007625058773
        ],
        [
            0.9335560267951549,
            -8.306369137650357,
            4.782864236121329,
            4.6361659164545665
        ],
        [
            -0.4870047324690283,
            -6.075241506705428,
            10.298093875930897,
            4.019237184032303
        ],
        [
            3.041786804856291,
            -6.304025140991274,
            -0.8718351905373027,
            1.6454356174449583
        ],
        [
            4.414719741577872,
            -7.976667154367545,
            -2.9284820256568684,
            1.6604162283733124
        ],
        [
            2.204613226143971,
            -6.887411059015401,
            -2.133449274830705,
            3.3199365170750688
        ],
        [
            3.101079522636483,
            -7.356689230663435,
            -1.380328444437046,
            2.532332552191855
        ],
        [
            1.2315759543991731,
            -7.450663090942283,
            6.419289772504257,
            3.9580670301498975
        ],
        [
            1.115752527632378,
            -8.925970507792428,
            5.950829128133548,
            4.300792319005552
        ],
        [
            -0.5661198962708069,
            -6.6228082602428415,
            9.07326857722279,
            4.147037027726688
        ],
        [
            3.290264082036023,
            -5.291380815487846,
            -2.1741328392105554,
            1.7634011693209517
        ],
        [
            2.718953715037257,
            -6.777979729751365,
            -1.3009456911827404,
            2.160011853394802
        ],
        [
            0.10093530000594897,
            -8.140179753412044,
            9.980521494473216,
            4.5463247485497185
        ],
        [
            1.482719956496666,
            -7.678215761848963,
            3.835254564958337,
            2.746282746571877
        ],
        [
            2.061990048303349,
            -7.442978001126009,
            -0.08964480773283401,
            2.8466391974803407
        ],
        [
            1.1116671676366712,
            -7.2712473729000475,
            4.681794635053763,
            4.3879131886378415
        ],
        [
            1.677426167514818,
            -7.928745565379491,
            1.0330094995606505,
            3.5312168862406184
        ],
        [
            2.1517113100597878,
            -8.090579201023454,
            1.9644503433077198,
            4.336760676227118
        ],
        [
            -0.9680724355828216,
            -7.2222794354928945,
            8.002302669719494,
            5.802411076861269
        ],
        [
            2.5685262491665393,
            -6.467310783097359,
            -0.5221087634052803,
            2.2368279601203067
        ],
        [
            1.6963795610902397,
            -7.446597294532486,
            1.4448307149437132,
            3.9598607382810105
        ],
        [
            2.390448721123488,
            -9.097624346771987,
            -1.3982197654533228,
            3.3899067872853808
        ],
        [
            0.10202878398570348,
            -6.390242559858817,
            8.156060025626992,
            3.450561334085508
        ],
        [
            2.656822360566605,
            -7.0466326964891595,
            -2.3453523251112913,
            3.0592610065963894
        ],
        [
            0.9907055383882272,
            -6.9573568203339615,
            5.479740157091224,
            3.4950184406143054
        ],
        [
            1.2176533920924633,
            -6.810928523665332,
            5.780295138042638,
            4.154030309363986
        ],
        [
            0.5261210146761517,
            -7.778344779589155,
            5.894264036407681,
            4.582032265970695
        ],
        [
            2.5574210266256716,
            -7.664269388250727,
            -0.7192523507284496,
            3.031750149064575
        ],
        [
            2.2264334861857,
            -9.14903017081977,
            -0.3582422872044603,
            3.0498398522475334
        ],
        [
            3.7488140312250446,
            -7.418800169303755,
            -3.1663404716302894,
            1.840130033041662
        ],
        [
            1.6264806539138394,
            -8.188782298113361,
            1.9321724262341524,
            4.166792995330592
        ],
        [
            2.2076099600456613,
            -5.9911646075274225,
            1.123699547032455,
            3.271731024757873
        ],
        [
            1.7502276573862945,
            -8.830261411534217,
            2.575335359216851,
            4.601033863158763
        ],
        [
            1.6309602071907574,
            -8.237452709390238,
            1.5704109642368438,
            3.4083153947255247
        ],
        [
            3.7295017607723984,
            -6.5735899633520125,
            -1.7654238916514422,
            1.892978342861851
        ],
        [
            0.9800896409477636,
            -7.002782845392043,
            6.335802219220096,
            4.562503517500904
        ],
        [
            0.8348371797580123,
            -7.987988516695904,
            6.324728414758465,
            3.837427911701922
        ],
        [
            0.41431793889024493,
            -8.115570314763447,
            5.182297668519228,
            4.592738142033493
        ],
        [
            2.4037073489308356,
            -7.7259300741127355,
            0.8692122890246898,
            2.931775592938348
        ],
        [
            3.0224033605142857,
            -6.445189289129546,
            -2.014542704238308,
            2.0204502553291297
        ],
        [
            2.2369848549783824,
            -8.254537892360053,
            -0.1326381530448918,
            3.6465565310729624
        ],
        [
            0.22435208659001526,
            -6.919200384075334,
            7.511151856332926,
            4.970804289025338
        ],
        [
            2.203627387858043,
            -8.080592206096046,
            0.88422174794035,
            2.8914022095704306
        ],
        [
            1.839648071270932,
            -8.83900886567723,
            1.902735343504322,
            5.200075001018312
        ],
        [
            0.6123828130609655,
            -9.75661150757249,
            6.7140300511051665,
            5.790706382699868
        ],
        [
            -0.4915018709622134,
            -6.85803992183246,
            7.952202052243107,
            4.713366125831599
        ],
        [
            3.1102583702431614,
            -6.76039752515209,
            -1.8529992706261378,
            2.3399822402437467
        ],
        [
            1.6831736532840216,
            -7.11967814849529,
            3.1551932572747328,
            3.310290958815795
        ],
        [
            1.2936989176412892,
            -6.706306377679033,
            4.354977725089144,
            2.91802318361115
        ],
        [
            1.2944852279596768,
            -5.93439342401953,
            3.5653269582558917,
            2.9690586427335868
        ],
        [
            0.47566561005223806,
            -6.323676075487846,
            6.042622270326486,
            5.034098729895568
        ],
        [
            2.2559931445213706,
            -8.241522785794494,
            1.1824975314700736,
            2.8185837848808517
        ],
        [
            1.3215039010189056,
            -7.083241142350167,
            4.590573654247364,
            3.62670209869716
        ],
        [
            1.17100713131765,
            -7.386894559259449,
            3.8542025433100973,
            3.8461445755727004
        ],
        [
            0.5803211464184406,
            -8.029811609913653,
            4.8271890524549566,
            4.563861920264841
        ],
        [
            1.3863316525332918,
            -8.437939507346655,
            5.266761842002092,
            4.031030720014437
        ],
        [
            0.021406124274045535,
            -8.507016196371767,
            7.824813831035414,
            4.957610484498359
        ],
        [
            2.416534691389759,
            -7.825866710113861,
            0.3510097537760392,
            2.9974506663306
        ],
        [
            0.551952220858519,
            -5.5558601287341425,
            5.182173870599221,
            3.0585932682472414
        ],
        [
            2.4722134152052813,
            -7.374057456971135,
            0.021982596069371974,
            3.790163938808349
        ],
        [
            0.5258821572233654,
            -7.944760108599239,
            8.269549454690884,
            4.962394813566404
        ],
        [
            2.347756276407784,
            -7.973816662715716,
            -0.5110494313683943,
            3.1224912629843633
        ],
        [
            4.812936626127417,
            -7.465776781543285,
            -1.6394042228104289,
            0.6827965139819119
        ],
        [
            0.7323266483401719,
            -7.321367960607364,
            4.49546507252595,
            4.52948662572813
        ],
        [
            2.2049949879458968,
            -6.700643766206835,
            1.8682404688238727,
            2.7505346232277064
        ],
        [
            2.753947274863526,
            -7.239213852283575,
            -0.7240548105761517,
            2.706638802919461
        ],
        [
            0.9642950972173601,
            -9.051296839768284,
            4.941656786914849,
            3.745270236804694
        ],
        [
            1.322745532047729,
            -8.257601995147757,
            4.321936194233597,
            4.29929993075245
        ],
        [
            1.1156333261432636,
            -8.30427021271622,
            3.5282344795146225,
            5.001743309821286
        ],
        [
            1.0203784345412412,
            -9.350011906861738,
            2.559287058299438,
            4.530821853757351
        ],
        [
            0.8796937082229395,
            -4.744023316686269,
            4.726894280657888,
            3.2675542312094423
        ],
        [
            1.99597404953385,
            -8.873127379485656,
            2.3774392998409564,
            3.9344539025557563
        ],
        [
            0.13731349431305429,
            -7.857277100088226,
            6.480156272354983,
            4.3846220906869915
        ],
        [
            1.0162899639315286,
            -6.7123627912316906,
            4.4875394766274805,
            3.4458726997707214
        ],
        [
            1.151127996060728,
            -7.205759275882228,
            2.177968260568006,
            3.160576159805292
        ],
        [
            2.5195965202081076,
            -6.655015506697467,
            -0.4697921908900311,
            2.6777370071327016
        ],
        [
            1.2701644303162882,
            -6.302242421597511,
            2.842646832982295,
            4.131078374794964
        ],
        [
            1.3629601542899323,
            -8.9080497973933,
            3.7001320930081585,
            4.016975353590249
        ],
        [
            0.8760573431010369,
            -8.157320611057164,
            5.675508790229348,
            4.518028937945426
        ],
        [
            1.199851947370295,
            -6.40347857210173,
            4.116836321508287,
            3.265433983826606
        ],
        [
            0.8484516071438579,
            -7.541633166826077,
            5.2539441157659645,
            4.376774688474428
        ],
        [
            0.600163972306136,
            -8.771190817758471,
            6.702512026052065,
            5.938550757817563
        ],
        [
            2.215303675902063,
            -9.852263622107543,
            0.13447626623825487,
            4.41732849539423
        ],
        [
            2.4478601900011663,
            -7.7116033518059455,
            -0.5594748500067196,
            2.9555309461019212
        ],
        [
            1.592653006697825,
            -4.966332305655563,
            4.646901713397563,
            1.7128592771831486
        ],
        [
            2.0632971353486447,
            -7.742936056446637,
            1.6032980570701276,
            3.395843746862754
        ],
        [
            1.4501643767594006,
            -7.3156310305786,
            2.4883321380548225,
            5.307425984182523
        ],
        [
            2.794193707884642,
            -5.434357085120169,
            -0.06117125982579108,
            1.1065752904283621
        ],
        [
            0.771824456162467,
            -7.415241972208251,
            5.139615224781222,
            4.733878119792838
        ],
        [
            2.645424877440932,
            -6.877212389259269,
            -0.8846518709638366,
            3.0330798067832427
        ],
        [
            2.7831410886077106,
            -6.841856539999359,
            -2.7967433972960425,
            2.843893721571726
        ],
        [
            -0.45004272313896276,
            -5.485153208860606,
            7.914727942104211,
            4.615721518684072
        ],
        [
            1.0740407304962911,
            -6.380334568381422,
            4.492681246605549,
            3.911913730534828
        ],
        [
            0.9726638351443357,
            -7.402616296192405,
            5.145977774804861,
            5.179264569274795
        ],
        [
            1.4153431119449622,
            -8.363484577077099,
            4.207085535148524,
            3.8496737552847073
        ],
        [
            0.8141729466024294,
            -8.013845910065488,
            5.566912953988581,
            4.760284273131553
        ],
        [
            2.153964171785503,
            -6.973928129819168,
            1.2449377479633443,
            3.0398133318885483
        ],
        [
            1.7331462732773817,
            -6.9075750627065595,
            1.1353218140142356,
            3.7287582560744523
        ],
        [
            2.099483664597916,
            -5.920767122417535,
            -0.6501384500627023,
            3.457273874890383
        ],
        [
            -0.2090382262829038,
            -5.271825294832366,
            7.358405124073135,
            4.402604910237255
        ],
        [
            0.6174627152153576,
            -7.113975278566291,
            4.53700676235679,
            4.32962614874034
        ],
        [
            1.6054541404041882,
            -7.047950571529153,
            0.7189832708997428,
            3.9218140482640123
        ],
        [
            1.7717698147863352,
            -6.482305672790517,
            2.423547134760138,
            3.341317010506062
        ],
        [
            2.1640559343653814,
            -9.445923420453612,
            0.7411320121129272,
            3.5437760380051286
        ],
        [
            3.198126724329839,
            -9.133318762151653,
            -1.7429893106100165,
            2.851434178234634
        ],
        [
            1.9554314025449622,
            -6.667492145067943,
            -0.5655556729247686,
            2.969362712080587
        ],
        [
            1.758728855833096,
            -6.242584183862753,
            3.755179515530516,
            2.6561809464160215
        ],
        [
            -0.10478336350805906,
            -8.09295070135797,
            7.250393680095842,
            4.473424547322507
        ],
        [
            0.8451116053822441,
            -8.139244460956153,
            3.433720719298894,
            4.444205556505282
        ],
        [
            1.0023245514429688,
            -6.884509593843536,
            3.641646353134979,
            3.6821683927914743
        ],
        [
            1.9341536213376966,
            -6.830876310276473,
            1.4775031369122498,
            3.2553818866247872
        ],
        [
            2.1803471385023365,
            -7.2591366929457655,
            0.5911413455730532,
            3.5384980438772815
        ],
        [
            0.7269434466933891,
            -6.370224171289439,
            4.065116141957429,
            3.3247560717391056
        ],
        [
            2.3149927492632782,
            -6.522500194287556,
            1.2898430149586266,
            3.003009230447905
        ],
        [
            0.6139679271744428,
            -7.247015641079001,
            6.994367441722823,
            3.60371288104304
        ],
        [
            2.6463052911721485,
            -7.560483090730273,
            0.5520610499062621,
            2.481151896073004
        ],
        [
            1.1336891790689405,
            -6.940297238475094,
            5.172518731473469,
            4.0742857373115395
        ],
        [
            3.5650345653835145,
            -7.588419726668866,
            -1.3724338089606016,
            1.8814658979812335
        ],
        [
            2.543595580863775,
            -11.131668223956787,
            -0.254083687771673,
            3.583650976314869
        ],
        [
            2.0692750909953586,
            -6.265791954742335,
            0.24356143486448334,
            2.9886608548752136
        ],
        [
            1.0743482982280823,
            -8.272704016978105,
            5.094315897182955,
            4.7535012029553405
        ],
        [
            0.9755450693046691,
            -8.732428249280229,
            6.4896029266534185,
            4.924564748118436
        ],
        [
            0.9329324898137242,
            -6.758734453711341,
            4.2951378857135785,
            3.909390047289978
        ],
        [
            0.68898308439318,
            -6.881211889911957,
            5.144545410890168,
            4.164340360069569
        ],
        [
            2.2652946232761044,
            -6.673139365420299,
            -0.3394044130622824,
            3.553511535699178
        ],
        [
            2.016082498998965,
            -8.499475533806134,
            0.5129599746621226,
            3.601315383694729
        ],
        [
            1.2882980303165599,
            -6.070298295395051,
            3.601517415574368,
            3.520496230283453
        ],
        [
            4.211559996588006,
            -8.02314286373722,
            -2.2750538269031275,
            2.715330896513171
        ],
        [
            1.39331479498183,
            -8.056007429238827,
            4.895972805205181,
            3.92917829594235
        ],
        [
            3.7433146573617466,
            -6.124433241166589,
            -1.5781825370325815,
            1.2590305799100925
        ],
        [
            0.9915853274987069,
            -6.8722734357714605,
            5.571779669889727,
            3.8559159731254242
        ],
        [
            1.2302110070280263,
            -8.271851170879955,
            4.530104578902925,
            3.7587301039929146
        ],
        [
            2.7581024247756876,
            -9.181922126913875,
            -0.7282600860618627,
            3.7141888736861053
        ],
        [
            3.1619293063344487,
            -7.883295278583339,
            -1.6369546845088099,
            2.378314955984272
        ],
        [
            0.8942273560072782,
            -7.209278662075643,
            5.44368217652564,
            3.776694887178281
        ],
        [
            1.0513757435396087,
            -6.743250759638107,
            3.3483043880131302,
            3.2684212011047538
        ],
        [
            1.148128555795993,
            -7.185879879448827,
            6.2411660017028545,
            3.561872269544438
        ],
        [
            1.9562490563280837,
            -5.31069144309146,
            0.4524379070296073,
            2.801406746122876
        ],
        [
            2.6379725881976777,
            -8.341439748261351,
            -2.395818398711894,
            2.636926035638713
        ],
        [
            1.810295812908397,
            -6.110018623020846,
            0.3188495148734227,
            2.693795542542628
        ],
        [
            -0.24137245988979328,
            -7.787973653948827,
            7.762627867286168,
            5.757176705324207
        ],
        [
            2.233803556486907,
            -7.924760172024395,
            0.5965699003296927,
            2.848946375120542
        ],
        [
            2.118134165564478,
            -5.994714755996171,
            -0.1656481975924382,
            2.34522580986397
        ],
        [
            1.2065737576565139,
            -7.27233659249834,
            5.524689311858598,
            3.5153848779769765
        ],
        [
            2.6679746467058627,
            -7.765805013265595,
            -0.87835601788279,
            1.017341263430053
        ],
        [
            -0.23769683138332343,
            -7.899823233857629,
            8.362230939284496,
            4.172027280054574
        ],
        [
            2.517698015689361,
            -8.166419041579683,
            -0.9173522507204294,
            3.1255119065838044
        ],
        [
            1.4563398711398858,
            -7.2293051733538904,
            2.3235678847083534,
            3.494308034554086
        ],
        [
            1.9025179861974508,
            -7.844235765012876,
            -0.08106323944151939,
            3.4764191492433394
        ],
        [
            0.5314000011504223,
            -5.420770463330616,
            7.304335318668203,
            2.969903891615661
        ],
        [
            1.794206361678139,
            -7.3535440968100705,
            2.3646872391170057,
            3.488770997610086
        ],
        [
            0.4126383461825811,
            -8.936432346596714,
            4.958212215199677,
            5.0715925289673525
        ],
        [
            1.9355707026197642,
            -8.658562349362601,
            2.645789681488118,
            3.677605142451971
        ],
        [
            1.613674287856766,
            -5.867191356343987,
            3.527183356192979,
            2.3116698699760403
        ],
        [
            -0.33194659077667565,
            -6.517264266128801,
            9.592000146268136,
            3.8379219724710567
        ],
        [
            1.226748479157809,
            -7.553065102090815,
            3.9145731499165692,
            2.656243859794372
        ],
        [
            0.6660782577630171,
            -8.142605702825854,
            6.368293745232629,
            5.1169188119134095
        ],
        [
            1.2323321746196978,
            -6.679476080964314,
            4.64863387657507,
            3.1783653615033955
        ],
        [
            2.6951545165243234,
            -7.914048792258491,
            0.5756396208190857,
            2.727810328994321
        ],
        [
            3.1840301712786814,
            -8.362420852298875,
            -0.917826422104495,
            3.8540778080197096
        ],
        [
            -0.43510943071787844,
            -6.888386829662908,
            8.626333696935548,
            5.5837605639693395
        ],
        [
            2.8917106396435144,
            -6.793617622883297,
            0.9407715628663411,
            2.1611990295162524
        ],
        [
            2.795879082186696,
            -8.425234608793868,
            -1.6202024231769547,
            2.935124545628491
        ],
        [
            1.9011024867784119,
            -6.810672252345525,
            1.84115272383944,
            3.1835435721372827
        ],
        [
            1.5571599888801568,
            -6.960718698386021,
            2.515510346419645,
            4.239533953630648
        ],
        [
            1.5779773282961675,
            -8.209320124031308,
            2.921179818633865,
            3.55908840254862
        ],
        [
            2.3476265508306864,
            -7.869818219969204,
            0.2821599145565211,
            3.8540179753143393
        ],
        [
            1.7258841583555629,
            -8.807490082709377,
            1.970544211691375,
            4.142595134178442
        ],
        [
            1.461661164728301,
            -6.844451758541462,
            3.3500081410461915,
            3.4316851679125047
        ],
        [
            2.628593728620326,
            -7.519725843986073,
            0.04634410387953625,
            2.542625293885337
        ],
        [
            1.6330675182713685,
            -6.238251043966419,
            1.8317560487229525,
            3.8062179673746863
        ],
        [
            2.9539524935054122,
            -8.287457430919812,
            -1.920236825714456,
            1.9801750432476448
        ],
        [
            1.4130472616001575,
            -6.585849964834833,
            1.6716010529291274,
            3.619763976973435
        ],
        [
            1.6117628248845448,
            -7.721741381321846,
            2.2981796987432497,
            4.646510771308324
        ],
        [
            1.8943896176150048,
            -6.5635842782903,
            0.4479343269370004,
            2.7299906499224416
        ],
        [
            1.0460344919953437,
            -7.893152764356672,
            3.779257674059661,
            4.062230711799965
        ],
        [
            0.7071214168590422,
            -7.422882333467269,
            6.680110583427301,
            4.610306766754121
        ],
        [
            3.0987788585627825,
            -5.306224018554985,
            -0.2593953631728765,
            2.155534811974761
        ],
        [
            -0.8162581264952871,
            -5.6883641365046245,
            7.67543558218461,
            4.551283920902263
        ],
        [
            0.9150525801046605,
            -8.304500944607856,
            5.813644784101979,
            4.39284793963438
        ],
        [
            1.5921207050572603,
            -8.362466320060376,
            2.494586839038482,
            3.157406985128014
        ],
        [
            1.1329710494507177,
            -5.04222425639075,
            4.688992115372583,
            2.8046719980801376
        ],
        [
            0.7998839186855886,
            -7.482711698812933,
            3.443511069553558,
            3.91734471654738
        ],
        [
            0.774419209766728,
            -8.666173554564063,
            5.7555518006178685,
            4.042862792490151
        ],
        [
            1.2679644039979099,
            -6.253632351147193,
            3.2582816916521713,
            3.441772706530545
        ],
        [
            -0.706758630875691,
            -6.98252275673943,
            6.523936352570297,
            5.215378818458721
        ],
        [
            1.301127796943945,
            -7.868872400935588,
            2.4040637576453845,
            3.92465495638726
        ],
        [
            1.795261445904294,
            -7.596181305815787,
            2.7069929244953643,
            3.5228641576390376
        ],
        [
            1.4702863684603173,
            -8.544448987391164,
            2.163211158607381,
            3.936213452221094
        ],
        [
            3.652972570838271,
            -8.177270310850524,
            -1.71724815690307,
            2.377768098043527
        ],
        [
            1.5301888345765002,
            -8.4713765397357,
            2.675409002101839,
            3.5503937396621366
        ],
        [
            1.7510432525653354,
            -5.732627665146191,
            3.3950310703602424,
            3.0681530525668124
        ],
        [
            0.1841954386888094,
            -8.4012687276732,
            6.862594079805597,
            4.674297325646143
        ],
        [
            3.764001304392432,
            -10.297428618762934,
            -2.9981701147120194,
            3.619332617179662
        ],
        [
            -0.5554026826493463,
            -6.642255504034456,
            7.663876102423863,
            4.596695977884284
        ],
        [
            0.08164811081644974,
            -9.338240117544753,
            6.833826877224732,
            5.132586699773411
        ],
        [
            3.121723807512038,
            -6.324966045316234,
            -3.165373410495052,
            2.297276430872562
        ],
        [
            1.5125554364270024,
            -6.872430587771775,
            3.3353970271948357,
            1.812276887352367
        ],
        [
            2.344708472063053,
            -6.1608330401812434,
            -0.6364266496557774,
            2.542940947303286
        ],
        [
            2.2529480398691484,
            -8.180171811089476,
            2.367313392686988,
            4.356725718108007
        ],
        [
            2.7691374354128633,
            -8.007643636953238,
            -0.7805887486549029,
            2.2175409472576204
        ],
        [
            2.375257110801142,
            -8.13715547200667,
            1.2187860753370685,
            3.831704758194424
        ],
        [
            0.9672674907704277,
            -6.141955335821516,
            4.447510651922739,
            3.0064740452770033
        ],
        [
            1.7922204443735454,
            -8.12035179945453,
            0.4990443917439824,
            3.916193678929209
        ],
        [
            1.8293293874394887,
            -6.67464770324896,
            2.5896327241441903,
            2.866967747302215
        ],
        [
            1.7855678747337043,
            -7.285555196215559,
            3.000331862118875,
            3.4495135664691388
        ],
        [
            4.0176325964019135,
            -7.762267603150774,
            -2.7552498145056115,
            2.0866774095520295
        ],
        [
            1.2717924326437027,
            -7.64813417498393,
            3.7794453497180376,
            3.674703340528541
        ],
        [
            1.1261420545719982,
            -5.410375923836428,
            4.302759176614789,
            3.192941343197582
        ],
        [
            0.9542687197811521,
            -7.137171480117939,
            5.7716371786284455,
            3.466201915631033
        ],
        [
            3.4006451315304265,
            -7.848705804725641,
            -2.057844192405972,
            1.813280884804775
        ],
        [
            2.4681760887650595,
            -7.662218483915093,
            -0.9783908907799298,
            3.002579096948495
        ],
        [
            0.4221173491630468,
            -6.475964898832653,
            7.158874859960526,
            2.7174033824589983
        ],
        [
            0.35397877228399355,
            -5.750889732031609,
            7.2924994180791884,
            3.6867164927472014
        ],
        [
            1.176029990319679,
            -8.223419228411458,
            5.153535823836203,
            4.079557238936268
        ],
        [
            0.5801128734193202,
            -6.297353513938285,
            5.374216979328919,
            3.2123996349995423
        ],
        [
            2.005367518739852,
            -6.857376546148854,
            0.0797600144869628,
            1.565463553375139
        ],
        [
            1.8728555889648089,
            -8.624240409484878,
            2.177604338591554,
            4.240080364800413
        ],
        [
            2.9541709028423533,
            -5.725782614023221,
            -1.8171791475038035,
            1.4975852879489802
        ],
        [
            0.20604329707488267,
            -7.581293028092764,
            7.903733462923043,
            3.9257722433756044
        ],
        [
            1.406648043513926,
            -6.6903938213473815,
            3.0407257662787055,
            2.583566207225414
        ],
        [
            0.8006927791753125,
            -8.792708970803027,
            5.449183705896678,
            4.534532819866119
        ],
        [
            1.8823500246872795,
            -7.104411229395639,
            1.8119770821414516,
            2.9027457512696397
        ],
        [
            2.9685949527538122,
            -7.877101287302172,
            -0.9059278805552555,
            2.837568913188994
        ],
        [
            0.8398712002185265,
            -7.6368182650209215,
            5.537540719220151,
            3.7027235496557838
        ],
        [
            2.3628530963245598,
            -6.215092289510937,
            -1.0790376107221142,
            2.157459057334915
        ],
        [
            1.3054219788116568,
            -7.847621525323342,
            1.9246875255320313,
            4.103751726352628
        ],
        [
            0.8982736586558993,
            -7.90631372500584,
            6.475046785246686,
            3.9506569589801526
        ],
        [
            0.9025312562826013,
            -5.894311579616114,
            5.424973420392499,
            3.9817397892108577
        ],
        [
            2.1037231649537924,
            -5.399922162198292,
            1.540224740345461,
            1.8960452976894733
        ],
        [
            -0.028044506015861836,
            -6.576475880795287,
            7.263453463273859,
            4.398811909065769
        ],
        [
            0.35866666715203177,
            -8.173158799812944,
            5.96539954285661,
            5.391879807912576
        ],
        [
            -0.13656077305025027,
            -6.646877898985437,
            8.485708784947954,
            5.1749433802425395
        ],
        [
            1.7157008996196386,
            -8.639473906534084,
            2.211037983551106,
            3.2139984967059085
        ],
        [
            1.719382100485569,
            -7.9058412217435645,
            3.5320102800840605,
            3.5705299813046185
        ],
        [
            1.9503913923788567,
            -5.55963645063717,
            2.036648170733364,
            2.2804922416462987
        ],
        [
            0.7334249007083301,
            -8.730111647240987,
            4.861317370628228,
            4.6468608846548705
        ],
        [
            3.8606559428569827,
            -6.867928288811278,
            -2.28000692955075,
            1.8932190948458623
        ],
        [
            3.302471733191948,
            -10.604705731311238,
            -0.2459501338549468,
            2.9395098603368015
        ],
        [
            -0.00024745486602539835,
            -5.498185285649097,
            9.229691714447615,
            3.0340634183263857
        ],
        [
            1.8339652372204973,
            -9.558248959678782,
            3.2945560272893424,
            3.213958657448043
        ],
        [
            1.9174925828288516,
            -7.6475919796676095,
            2.5762625849762726,
            3.55063676990261
        ],
        [
            0.9888260369034598,
            -6.531867251173813,
            5.485327961931978,
            3.0482581649940745
        ],
        [
            2.0878478584288334,
            -6.190169586653996,
            1.782444373664722,
            2.2454360172132883
        ],
        [
            2.195716925129732,
            -6.027851775810917,
            1.0356083611952647,
            2.732575346947092
        ],
        [
            1.464812812062967,
            -6.34345041052107,
            1.9014690083051669,
            3.4596508400820984
        ],
        [
            1.567928959633449,
            -8.537765794196304,
            2.907442527601854,
            3.956664698959885
        ],
        [
            0.04785647666204351,
            -7.836655706284583,
            7.871936765030926,
            4.326578108521637
        ],
        [
            1.3522785524367307,
            -5.635125785268529,
            5.359699624752999,
            2.161580919125094
        ],
        [
            2.359922054224757,
            -6.099906385720425,
            0.9155888025922568,
            2.9506105406399303
        ],
        [
            2.982874387566963,
            -7.247639377875345,
            -2.3087688148935492,
            2.695993300033406
        ],
        [
            2.0377427692105683,
            -7.343185729983931,
            0.6469297615539115,
            3.96176867734133
        ],
        [
            2.2343894121566383,
            -5.3787768421677695,
            0.08132189990849925,
            1.9265160093983291
        ],
        [
            0.1776912892662046,
            -7.086225075425513,
            7.6881741016865766,
            5.715774811656443
        ],
        [
            2.6230587895572244,
            -7.902041285236699,
            -1.3479959481044514,
            3.3606963803704044
        ],
        [
            1.2285730476772212,
            -5.494001185800771,
            3.5953871153658072,
            2.809686473128487
        ],
        [
            1.1052934739992146,
            -5.910338665100777,
            3.7617706929406225,
            1.9985146784286711
        ],
        [
            3.3799247805799624,
            -8.098746502903419,
            -3.1210051463347317,
            2.992242140435642
        ],
        [
            3.0395646953555726,
            -8.147431217046632,
            0.07508155732089672,
            2.138757631170421
        ],
        [
            2.0291272990882905,
            -6.532499047332466,
            1.5277367685376342,
            2.34514687764023
        ],
        [
            2.3379164755697377,
            -8.385032485294463,
            0.4358587135121823,
            3.6954395889488603
        ],
        [
            2.6324461569764965,
            -5.08116308288454,
            0.21637382049546905,
            1.8449045407196396
        ],
        [
            1.155622488780283,
            -6.47160107569081,
            3.715872146952346,
            3.2571563971473116
        ],
        [
            1.4499649300616861,
            -8.407634345036303,
            3.3152074580938553,
            4.0676720448059225
        ],
        [
            2.510193919331487,
            -9.121796845020377,
            0.6683512139213077,
            4.3239065880567695
        ],
        [
            1.799960009038151,
            -5.932557031928425,
            2.250277478404165,
            3.250514677526585
        ],
        [
            2.517870000206031,
            -6.044144110497175,
            0.2694894566912478,
            2.4511038480812886
        ],
        [
            1.5159241854566046,
            -7.574973675936535,
            0.5541009088195947,
            3.8788637868369795
        ],
        [
            1.946845997041324,
            -6.532334150736625,
            2.338682322392324,
            2.212981427084106
        ],
        [
            1.6152358820385273,
            -6.90558985923532,
            2.345458837521211,
            2.926412062627356
        ],
        [
            -0.17405699352698867,
            -7.188992579798307,
            8.47232393744641,
            4.8554170139192685
        ],
        [
            1.088215821629468,
            -8.102757401508784,
            5.376452958139922,
            4.106329702871454
        ],
        [
            3.235007913796393,
            -5.304101318865132,
            0.30941421223929,
            1.8371084960674173
        ],
        [
            1.117478729918525,
            -8.734285479866784,
            2.3811701914796344,
            5.193351125113565
        ],
        [
            1.7393787017253186,
            -6.588267231250652,
            2.235542796518663,
            2.5969693835677767
        ],
        [
            3.719489708970774,
            -7.9810558646981375,
            -2.7876197488931354,
            2.0180057400787565
        ],
        [
            1.3942790937297576,
            -8.052197946850365,
            2.7833369258998255,
            3.7534919574023835
        ],
        [
            1.2639860060662964,
            -5.191258313253959,
            2.489120654764207,
            3.036970137059646
        ],
        [
            2.082969810457025,
            -6.987391539834082,
            1.9839645077877646,
            3.4532887389242934
        ],
        [
            0.8797260614021114,
            -7.535180978215065,
            7.0956280979630195,
            3.6975883673308942
        ],
        [
            1.1906851896740485,
            -6.013996114333785,
            3.575830742192818,
            4.023805431608877
        ],
        [
            0.6735758569532752,
            -7.929686165261942,
            5.57483833142948,
            4.702196966048232
        ],
        [
            2.1066074356137925,
            -7.288009853570134,
            0.6971187429013207,
            3.621382584756013
        ],
        [
            1.82063765672352,
            -5.870695387139518,
            3.714755422548495,
            2.3056565456349887
        ],
        [
            2.145289172473975,
            -6.812719859070401,
            -0.5700682577714169,
            2.5207569897642155
        ],
        [
            -0.03372879886460489,
            -5.5071994949749445,
            7.594137009686357,
            2.933220361107458
        ],
        [
            1.3056610335814276,
            -6.819157901312469,
            4.484376393513918,
            3.2458806829106868
        ],
        [
            1.2856260919165559,
            -7.544413418912577,
            5.6779799400038415,
            3.535843067725186
        ],
        [
            1.9967902973594647,
            -6.539396456594385,
            0.407861904006276,
            2.120257181323457
        ],
        [
            1.0895291382598224,
            -7.814310279011939,
            4.307032592452674,
            5.112092122467794
        ],
        [
            1.4332610098003356,
            -6.89593773105312,
            4.559574174486551,
            4.145355139516616
        ],
        [
            0.8624066257054458,
            -8.360694608060594,
            5.550877535155641,
            5.301656955331577
        ],
        [
            2.8508122415874686,
            -7.7389238870452095,
            -2.08088346813984,
            3.123685838456209
        ],
        [
            1.7195046721429554,
            -9.054085161228032,
            2.8105320017814277,
            4.260483469374968
        ],
        [
            2.3598791226472207,
            -8.409680804035728,
            0.7491451421076585,
            2.8516336758282503
        ],
        [
            3.8543859368539115,
            -6.297710411846436,
            -3.2415987989480635,
            0.8389413006054798
        ],
        [
            1.7078689721761233,
            -6.87521966221432,
            3.2883308376236693,
            3.4802329784361974
        ],
        [
            2.0787730980973733,
            -7.1555069205898825,
            1.2596451315249724,
            2.860475279190852
        ],
        [
            2.466057291488457,
            -7.415482589461022,
            -0.7854194562579846,
            2.8835074120867548
        ],
        [
            1.3426076954543857,
            -7.594593719831623,
            3.4009173679049756,
            3.6386788049787335
        ],
        [
            -0.3661379722691229,
            -5.189135685189662,
            7.9723948892879335,
            3.341318507436632
        ],
        [
            2.371877927226376,
            -7.793525770571491,
            1.4430411100295346,
            2.5356271801670442
        ],
        [
            2.3587435972226793,
            -7.231245321743175,
            0.1583610320102886,
            2.022782636130236
        ],
        [
            1.2619896154839658,
            -6.957343258204187,
            3.0645267574893404,
            3.7101700247918696
        ],
        [
            3.4335139330450226,
            -7.353705024879353,
            -2.7505606062483077,
            2.353067532652754
        ],
        [
            0.5672407377354038,
            -8.734348062792556,
